Language model created by QuickLM on Thu Mar 17 13:36:23 EDT 2016
Copyright (c) 1996-2010 Carnegie Mellon University and Alexander I. Rudnicky

The model is in standard ARPA format, designed by Doug Paul while he was at MITRE.

The code that was used to produce this language model is available in Open Source.
Please visit http://www.speech.cs.cmu.edu/tools/ for more information

The (fixed) discount mass is 0.5. The backoffs are computed using the ratio method.
This model based on a corpus of 4 sentences and 6 words

\data\
ngram 1=6
ngram 2=8
ngram 3=4

\1-grams:
-0.7782 </s> -0.3010
-0.7782 <s> -0.2218
-1.3802 HUMIDITY -0.2218
-1.3802 JARVIS -0.2218
-1.3802 TEMPERATURE -0.2218
-1.3802 TIME -0.2218

\2-grams:
-0.9031 <s> HUMIDITY 0.0000
-0.9031 <s> JARVIS 0.0000
-0.9031 <s> TEMPERATURE 0.0000
-0.9031 <s> TIME 0.0000
-0.3010 HUMIDITY </s> -0.3010
-0.3010 JARVIS </s> -0.3010
-0.3010 TEMPERATURE </s> -0.3010
-0.3010 TIME </s> -0.3010

\3-grams:
-0.3010 <s> HUMIDITY </s>
-0.3010 <s> JARVIS </s>
-0.3010 <s> TEMPERATURE </s>
-0.3010 <s> TIME </s>

\end\
